svm_type c_svc
kernel_type polynomial
degree 3
gamma 0.5
coef0 0
nr_class 2
total_sv 20
rho 6421.7670447936571
label 1 -1
probA -6.4537705105907644e-05
probB 0.11153612406183165
nr_sv 11 9
SV
0.963401582853329 1:51 2:62.5 
1 1:41 2:80 
1 1:41 2:76 
0.061873565156687502 1:51.5 2:82.5 
1 1:42 2:59.5 
1 1:30 2:64 
0.15257239515244977 1:61 2:45 
1 1:26.5 2:64.5 
1 1:51.5 2:66 
0.39696569059852582 1:41.5 2:71.5 
1 1:35 2:59.5 
-1 1:34.5 2:60 
-1 1:38.5 2:76 
-1 1:40 2:75 
-1 1:30 2:67 
-1 1:56.5 2:61 
-1 1:49.5 2:63 
-0.71415911968538059 1:34.5 2:72.5 
-1 1:41 2:63.5 
-0.86065411407567338 1:38 2:65 
