svm_type c_svc
kernel_type linear
nr_class 2
total_sv 37
rho 12.5117123590607
label 1 -1
probA -0.91441248239503736
probB -0.040218146866235753
nr_sv 19 18
SV
0.14906631569498249 1:41 2:73.5 
1 1:51 2:62.5 
1 1:46 2:60.5 
1 1:44 2:66 
1 1:33 2:76.5 
1 1:33.5 2:78.5 
1 1:31.5 2:72 
1 1:42 2:59.5 
1 1:30 2:64 
1 1:61 2:45 
1 1:26.5 2:64.5 
1 1:34 2:71.5 
1 1:29.5 2:74.5 
1 1:39.5 2:70 
1 1:41.5 2:71.5 
1 1:35 2:59.5 
1 1:38.5 2:73.5 
0.73475629426187394 1:32 2:81.5 
1 1:46 2:60.5 
-1 1:37.5 2:64.5 
-1 1:40 2:67 
-1 1:32.5 2:71.5 
-1 1:39 2:71.5 
-1 1:43 2:55.5 
-1 1:36 2:62.5 
-1 1:38.5 2:76 
-1 1:40 2:75 
-1 1:37.5 2:63 
-0.88382260995685713 1:30 2:67 
-1 1:56.5 2:61 
-1 1:49.5 2:63 
-1 1:34.5 2:72.5 
-1 1:32.5 2:69 
-1 1:36 2:73 
-1 1:41 2:63.5 
-1 1:38 2:65 
-1 1:33.5 2:68 
