svm_type c_svc
kernel_type rbf
gamma 0.5
nr_class 2
total_sv 80
rho -0.037635147869300889
label 1 -1
probA 0.6554488713047355
probB -0.049412737894162173
nr_sv 40 40
SV
0.5 1:55.5 2:69.5 
0.5 1:41 2:81.5 
0.5 1:53.5 2:86 
0.5 1:46 2:84 
0.5 1:41 2:73.5 
0.5 1:51.5 2:69 
0.5 1:51 2:62.5 
0.5 1:42 2:75 
0.5 1:53.5 2:83 
0.5 1:57.5 2:71 
0.5 1:42.5 2:72.5 
0.5 1:41 2:80 
0.5 1:46 2:82 
0.46231094880569779 1:46 2:60.5 
0.5 1:49.5 2:76 
0.5 1:41 2:76 
0.5 1:48.5 2:72.5 
0.5 1:51.5 2:82.5 
0.5 1:44.5 2:70.5 
0.5 1:44 2:66 
0.5 1:33 2:76.5 
0.5 1:33.5 2:78.5 
0.5 1:31.5 2:72 
0.5 1:33 2:81.5 
0.5 1:42 2:59.5 
0.5 1:30 2:64 
0.5 1:61 2:45 
0.5 1:49 2:79 
0.5 1:26.5 2:64.5 
0.5 1:34 2:71.5 
0.5 1:42 2:83.5 
0.5 1:29.5 2:74.5 
0.5 1:39.5 2:70 
0.5 1:51.5 2:66 
0.5 1:41.5 2:71.5 
0.5 1:42.5 2:79.5 
0.5 1:35 2:59.5 
0.5 1:38.5 2:73.5 
0.5 1:32 2:81.5 
0.5 1:46 2:60.5 
-0.5 1:36.5 2:53 
-0.5 1:36.5 2:53.5 
-0.5 1:24 2:60.5 
-0.5 1:19 2:57.5 
-0.5 1:34.5 2:60 
-0.46231094880569779 1:37.5 2:64.5 
-0.5 1:35.5 2:51 
-0.5 1:37 2:50.5 
-0.5 1:21.5 2:42 
-0.5 1:35.5 2:58.5 
-0.5 1:26.5 2:68.5 
-0.5 1:26.5 2:55.5 
-0.5 1:18.5 2:67 
-0.5 1:40 2:67 
-0.5 1:32.5 2:71.5 
-0.5 1:39 2:71.5 
-0.5 1:43 2:55.5 
-0.5 1:22 2:54 
-0.5 1:36 2:62.5 
-0.5 1:31 2:55.5 
-0.5 1:38.5 2:76 
-0.5 1:40 2:75 
-0.5 1:37.5 2:63 
-0.5 1:24.5 2:58 
-0.5 1:30 2:67 
-0.5 1:33 2:56 
-0.5 1:56.5 2:61 
-0.5 1:41 2:57 
-0.5 1:49.5 2:63 
-0.5 1:34.5 2:72.5 
-0.5 1:32.5 2:69 
-0.5 1:36 2:73 
-0.5 1:27 2:53.5 
-0.5 1:41 2:63.5 
-0.5 1:29.5 2:52.5 
-0.5 1:20 2:65.5 
-0.5 1:38 2:65 
-0.5 1:18.5 2:74.5 
-0.5 1:16 2:72.5 
-0.5 1:33.5 2:68 
