svm_type c_svc
kernel_type rbf
gamma 0.5
nr_class 2
total_sv 80
rho 0.0023289115304306702
label 1 -1
probA -0.66383832157215827
probB -0.01700305340415708
nr_sv 40 40
SV
0.95997270273360347 1:55.5 2:69.5 
0.71609957763328591 1:41 2:81.5 
0.99219699089902391 1:53.5 2:86 
0.8824878144587468 1:46 2:84 
0.82499076253480041 1:41 2:73.5 
0.99137969652745594 1:51.5 2:69 
1 1:51 2:62.5 
0.58528280785677467 1:42 2:75 
0.88430624050456397 1:53.5 2:83 
0.9601430056079433 1:57.5 2:71 
0.54532795810278523 1:42.5 2:72.5 
0.5339251947546495 1:41 2:80 
0.88260704232040055 1:46 2:82 
0.0021124843064745627 1:46 2:60.5 
0.99113726905573718 1:49.5 2:76 
1 1:41 2:76 
1 1:48.5 2:72.5 
0.8963902152471146 1:51.5 2:82.5 
0.98733214723792473 1:44.5 2:70.5 
1 1:44 2:66 
0.89582910196027543 1:33 2:76.5 
0.88685164408394979 1:33.5 2:78.5 
1 1:31.5 2:72 
0.61287198986445834 1:33 2:81.5 
1 1:42 2:59.5 
1 1:30 2:64 
1 1:61 2:45 
0.99299563982149919 1:49 2:79 
1 1:26.5 2:64.5 
1 1:34 2:71.5 
0.94212056424769652 1:42 2:83.5 
0.99610622274983895 1:29.5 2:74.5 
1 1:39.5 2:70 
0.9908443070908709 1:51.5 2:66 
0.69423545046047497 1:41.5 2:71.5 
0.8172379083719532 1:42.5 2:79.5 
1 1:35 2:59.5 
1 1:38.5 2:73.5 
0.62742931369122779 1:32 2:81.5 
1 1:46 2:60.5 
-0.22963340073766159 1:36.5 2:53 
-0.76784595259134636 1:36.5 2:53.5 
-0.96069895121029869 1:24 2:60.5 
-0.99752283032050448 1:19 2:57.5 
-1 1:34.5 2:60 
-0.1462285147354844 1:37.5 2:64.5 
-0.73799070357122865 1:35.5 2:51 
-0.76973295606746528 1:37 2:50.5 
-0.99773617632037592 1:21.5 2:42 
-1 1:35.5 2:58.5 
-0.9974267883017236 1:26.5 2:68.5 
-0.88834482435671491 1:26.5 2:55.5 
-0.90233073511954565 1:18.5 2:67 
-0.99180941777577847 1:40 2:67 
-1 1:32.5 2:71.5 
-1 1:39 2:71.5 
-0.95483678246710635 1:43 2:55.5 
-0.99747412803822821 1:22 2:54 
-0.79925559470484109 1:36 2:62.5 
-0.88760253611054241 1:31 2:55.5 
-0.89052470838190068 1:38.5 2:76 
-1 1:40 2:75 
-0.62581911027101744 1:37.5 2:63 
-0.95518259463575572 1:24.5 2:58 
-1 1:30 2:67 
-0.89006922742749472 1:33 2:56 
-0.99779043384616861 1:56.5 2:61 
-0.9825023435701109 1:41 2:57 
-1 1:49.5 2:63 
-1 1:34.5 2:72.5 
-0.69598502296411657 1:32.5 2:69 
-0.78898281174140161 1:36 2:73 
-0.86579090647741452 1:27 2:53.5 
-0.99285271766370942 1:41 2:63.5 
-0.97083843430771455 1:29.5 2:52.5 
-0.90269600658264382 1:20 2:65.5 
-0.78258959900954583 1:38 2:65 
-0.99170742905423415 1:18.5 2:74.5 
-0.99137969652745594 1:16 2:72.5 
-0.74103271723399922 1:33.5 2:68 
